digraph Tree {
node [shape=box, style="filled, rounded", color="black", fontname="helvetica"] ;
edge [fontname="helvetica"] ;
0 [label="high <= 241.285\ngini = 0.492\nsamples = 5749\nvalue = [3964, 5136]\nclass = Sube", fillcolor="#d2e9f9"] ;
1 [label="proc <= -0.027\ngini = 0.49\nsamples = 5658\nvalue = [3860, 5098]\nclass = Sube", fillcolor="#cfe7f9"] ;
0 -> 1 [labeldistance=2.5, labelangle=45, headlabel="True"] ;
2 [label="macd_signal <= -3.1\ngini = 0.5\nsamples = 1807\nvalue = [1403.0, 1489.0]\nclass = Sube", fillcolor="#f4f9fd"] ;
1 -> 2 ;
3 [label="close_smoothed <= 164.583\ngini = 0.401\nsamples = 38\nvalue = [20, 52]\nclass = Sube", fillcolor="#85c3ef"] ;
2 -> 3 ;
4 [label="(...)", fillcolor="#C0C0C0"] ;
3 -> 4 ;
7 [label="(...)", fillcolor="#C0C0C0"] ;
3 -> 7 ;
16 [label="obv <= 26280072192.0\ngini = 0.5\nsamples = 1769\nvalue = [1383.0, 1437.0]\nclass = Sube", fillcolor="#f8fbfe"] ;
2 -> 16 ;
17 [label="(...)", fillcolor="#C0C0C0"] ;
16 -> 17 ;
438 [label="(...)", fillcolor="#C0C0C0"] ;
16 -> 438 ;
899 [label="obv <= 68978618368.0\ngini = 0.482\nsamples = 3851\nvalue = [2457.0, 3609.0]\nclass = Sube", fillcolor="#c0e0f7"] ;
1 -> 899 ;
900 [label="open <= 0.356\ngini = 0.494\nsamples = 1743\nvalue = [1221, 1526]\nclass = Sube", fillcolor="#d7ebfa"] ;
899 -> 900 ;
901 [label="(...)", fillcolor="#C0C0C0"] ;
900 -> 901 ;
1378 [label="(...)", fillcolor="#C0C0C0"] ;
900 -> 1378 ;
1725 [label="open <= 0.929\ngini = 0.467\nsamples = 2108\nvalue = [1236, 2083]\nclass = Sube", fillcolor="#aed7f4"] ;
899 -> 1725 ;
1726 [label="(...)", fillcolor="#C0C0C0"] ;
1725 -> 1726 ;
1727 [label="(...)", fillcolor="#C0C0C0"] ;
1725 -> 1727 ;
2662 [label="open <= 271.52\ngini = 0.392\nsamples = 91\nvalue = [104, 38]\nclass = Baja/Lat", fillcolor="#eeaf81"] ;
0 -> 2662 [labeldistance=2.5, labelangle=-45, headlabel="False"] ;
2663 [label="obv <= 161249312768.0\ngini = 0.458\nsamples = 73\nvalue = [69, 38]\nclass = Baja/Lat", fillcolor="#f3c6a6"] ;
2662 -> 2663 ;
2664 [label="stochastic_k <= 90.393\ngini = 0.161\nsamples = 24\nvalue = [31, 3]\nclass = Baja/Lat", fillcolor="#e88d4c"] ;
2663 -> 2664 ;
2665 [label="(...)", fillcolor="#C0C0C0"] ;
2664 -> 2665 ;
2666 [label="(...)", fillcolor="#C0C0C0"] ;
2664 -> 2666 ;
2669 [label="obv <= 161572511744.0\ngini = 0.499\nsamples = 49\nvalue = [38, 35]\nclass = Baja/Lat", fillcolor="#fdf5ef"] ;
2663 -> 2669 ;
2670 [label="(...)", fillcolor="#C0C0C0"] ;
2669 -> 2670 ;
2681 [label="(...)", fillcolor="#C0C0C0"] ;
2669 -> 2681 ;
2692 [label="gini = 0.0\nsamples = 18\nvalue = [35, 0]\nclass = Baja/Lat", fillcolor="#e58139"] ;
2662 -> 2692 ;
}